{
  "activationFunction": {
    "type": "NumberClassifier.ReLUActivationFunction",
    "data": {}
  },
  "layers": [
    784,
    32,
    32,
    10
  ],
  "params": {
    "layers": [
      784,
      32,
      32,
      10
    ],
    "biases": [
      [
        0.21741933543142877,
        -0.04956637854447671,
        0.4454616928022625,
        0.07596409140633065,
        0.029652989190227595,
        0.047484927222089406,
        0.27145880020402796,
        -0.013231916420824321,
        0.02547022025218952,
        -0.16666360396295138,
        -0.014819282344367975,
        0.1733898858021991,
        0.015352988148610114,
        0.04110132675904086,
        0.26702837446196115,
        0.07363591525488097,
        -7.409258434066232E-4,
        0.023966642893506033,
        0.03175705190767352,
        0.005699020699669194,
        0.13671280671333227,
        0.07243627990113305,
        0.1034640478990955,
        -0.1589199410128749,
        -0.07004876943044736,
        0.007197221550264606,
        0.266740293883174,
        0.037297649445523405,
        0.06425387074925923,
        -0.07506208298641033,
        0.05498987315562752,
        0.1255651119652485
      ],
      [
        0.52357333517624,
        0.3806202510504393,
        0.1676231342145053,
        0.09551524730700438,
        0.31824865227482474,
        0.24471320716271225,
        -0.4692838278901996,
        0.05774086437617522,
        0.23997238002728094,
        0.19892273345478959,
        0.08705839495801225,
        -0.23732207968323354,
        0.01766400827739087,
        0.407620605532804,
        0.3455642732764726,
        0.020242647326132644,
        0.03813205201585769,
        0.401906386848513,
        0.17253965593746487,
        -0.03556939258364124,
        0.2844934836592534,
        0.21542695990622415,
        0.32632615843780766,
        -0.009937645901713565,
        0.0717378601759439,
        0.3833216861410786,
        0.3525041071299276,
        -0.0029652838632438032,
        0.15371327117972056,
        0.1500008417871439,
        0.04847151490822467,
        -0.18156680857907412
      ],
      [
        0.8226254944518545,
        0.6185293272603781,
        0.7877836410287825,
        0.9650364564361206,
        0.49103728725043294,
        0.9634662167284208,
        0.6259422381052065,
        0.7147480848795849,
        0.959500997393264,
        0.7037716976125707
      ]
    ],
    "weights": [
      [
        -0.017588309503517238,
        -0.08485473564218,
        -0.06568941143176817,
        -0.09603182281708485,
        -0.0986718104021595,
        -0.09981366613056214,
        0.08919913747699099,
        -0.03686799554590592,
        -0.025508572577431624,
        0.07700061248699966,
        -0.050564452847114486,
        0.06539708494324134,
        -0.09528416689702751,
        -0.005974446870646591,
        0.08310760535158743,
        0.09605276924283507,
        -0.07277484568111425,
        0.02169893338525511,
        -0.03781196909029425,
        0.06375093318244485,
        -0.01983882951901654,
        0.09570949384176317,
        -0.03695099023956812,
        0.009056722587262936,
        0.029819798743317666,
        0.00867158983130964,
        -0.08317579271379703,
        0.056860866021699485,
        -0.01300240713680774,
        0.011069677822841253,
        0.06406793923466095,
        -0.07952780056030256,
        -0.048972959869067356,
        -0.09717345957977952,
        -0.07851887493719617,
        0.06384176753583232,
        -0.0254756728087195,
        0.023606695477326856,
        0.07804420509646473,
        -0.06674723698202137,
        -0.045431416831442965,
        -0.01702555152704091,
        -0.09628263996108362,
        -0.019056678901270982,
        0.024976883978933717,
        0.010783749208635632,
        -0.02406118641309593,
        0.020512058528814964,
        -0.05046536870581145,
        0.053684916698666735,
        -0.09252785791076708,
        -0.02241101586800294,
        0.09748630033197289,
        -0.004609041259945365,
        -0.006275949273937528,
        -0.07086271775160587,
        0.020286699365807556,
        0.036354222185620455,
        0.0884741631707949,
        0.0608842522741285,
        0.0425583966202166,
        -0.06723824885847818,
        -0.03597114845361982,
        0.01476251965062221,
        0.030396110925225817,
        0.06526565882110266,
        -0.0848686410063992,
        0.04687539699760013,
        0.006604298721926555,
        -0.015377457127508959,
        -0.07446920702191956,
        0.07138319807771809,
        -0.054850619803709866,
        -0.03557614275413852,
        -0.06806709285135029,
        0.026839932971979785,
        0.09605348446721165,
        -0.019643048301235116,
        -0.007874110521884511,
        0.06889288529178719,
        -0.03284826665400278,
        0.030944232656721554,
        0.09239464946958184,
        0.06689008115686201,
        0.020580598750663176,
        0.016465839671112037,
        -0.08609251253182514,
        -0.03817625950313761,
        0.029560012361204258,
        -0.09922109774917275,
        -0.0814207485427335,
        -0.07082953544880709,
        0.08497728550878333,
        -0.004995606268886996,
        0.01198548684701628,
        -0.017428238746814942,
        0.04147625928285936,
        -0.07743974012201948,
        -0.005777688986151802,
        0.05293131301362092,
        -0.05079970853670775,
        -0.04822249808131667,
        0.01917714540952538,
        0.0823882386714585,
        -0.06996683992455632,
        -0.0846565322618317,
        -0.05150433475939353,
        0.08375837980776116,
        0.026127091315992168,
        0.07507468390078223,
        0.00860071380927456,
        0.03341847043153137,
        -0.02629735263633566,
        0.03602912570643252,
        -0.0625608313590977,
        0.08924084479689504,
        0.03655027588522858,
        -0.03427417067459251,
        0.04220314646617504,
        -0.04493082767455066,
        -0.028641106531844845,
        -0.06775259952608134,
        0.08009215720989588,
        0.049358497839075866,
        0.09094196032020782,
        -0.06074102261158934,
        0.021253167348429566,
        0.07798570790479065,
        0.04162696764024998,
        0.006484772269243752,
        -0.04364410291571839,
        0.059869347667059286,
        -0.08248051184411836,
        0.020941401548046135,
        0.07083088387631684,
        0.00892045027235322,
        0.09704833975375324,
        0.0672347633054069,
        -0.07638177819708632,
        -0.0630209742000479,
        -0.09385640255242522,
        -0.06551475083393482,
        0.04034525320898866,
        0.009773483514960185,
        0.08759460121132112,
        0.09295378932510523,
        0.05917162555912869,
        -0.0384268468772607,
        0.08758041862538177,
        0.03519897169806285,
        -0.04788935368412513,
        0.05408695632733557,
        -0.04193950855393813,
        0.08460349987979474,
        -0.014543934330529501,
        -0.048706073078125335,
        0.01765846285692811,
        -0.011634188396834472,
        0.08001370233516877,
        0.07427425509068125,
        -0.08613234110950292,
        0.03256072636361723,
        0.08515774909020515,
        0.09874223459389347,
        -0.014148150140882915,
        0.04363058904634795,
        -0.00969819346216183,
        0.06286533726811397,
        0.03981024926384158,
        0.07367640492764876,
        0.06319506828947916,
        0.06408648774023926,
        0.017821138093364858,
        0.0061760530733515895,
        -0.0734756379521061,
        -0.05895062699091676,
        -0.033726325946178845,
        -0.03573533368871916,
        0.06262305220359304,
        0.06035942773096756,
        -0.008557165078408507,
        0.055469994137892775,
        -0.029341815832987825,
        -0.04220395076402568,
        -0.07254224811823431,
        0.04480332113539065,
        -0.008512509865337983,
        -0.08027579179077343,
        0.03585897200921337,
        0.012364464617519721,
        0.062448200865287434,
        0.03283671837768781,
        0.006135517512668581,
        -0.07787294064601867,
        -0.03233998167778569,
        -0.021009076337207985,
        0.03307795617273793,
        -0.0946717598771864,
        0.008994727191451779,
        -0.0932133478539154,
        0.009478913550691678,
        -0.05510543888348943,
        0.03868543284424328,
        0.07266489996536829,
        0.09165791555531738,
        -0.06340610941196574,
        0.06661860296258157,
        0.011689655535777721,
        0.07048260444751009,
        -0.001889223357172426,
        -0.016327572316819847,
        -0.028192022891305943,
        -0.08799617863667948,
        -9.994045619779734E-4,
        -0.07296462046975899,
        0.025266332735597474,
        -0.08048276037731482,
        -0.007514363562070692,
        0.05425906482567161,
        0.05699401211131436,
        0.012809654221110717,
        -0.05568594755205319,
        -0.010130123724478218,
        -0.0778528397055674,
        0.020543296544983505,
        0.07441044199787633,
        -0.038315805396861746,
        0.06363989341981668,
        0.03817680149977326,
        0.0538046637645479,
        0.053542267297954305,
        -0.014628282655698113,
        0.016516876767429217,
        0.03233318492303311,
        0.06699607800770188,
        -0.012006730543579563,
        0.014939991929884197,
        0.011865287610694247,
        0.00655705024318845,
        0.09143525951579723,
        -0.021481391883249865,
        0.025314013297535354,
        -0.018570533556639734,
        0.09205826921767149,
        0.0797320179290561,
        -0.06655022360518775,
        -0.04877393481500012,
        0.032163898431902205,
        0.0031369410933858727,
        0.00954217818776773,
        0.03398239213711399,
        -0.004259500465482319,
        0.045318443175876244,
        0.04611357633596555,
        0.0418568722931521,
        0.08669968517403537,
        -0.0473628806574119,
        0.08859558524143882,
        -0.08677607383996003,
        0.0944924583177186,
        0.025733606955734428,
        0.07743762273717858,
        -0.03056232740605201,
        -0.09312326407331478,
        -0.017552966723372393,
        0.06322435725572711,
        0.04036412301034528,
        -0.009259242822658637,
        -0.010250869739264812,
        0.04861679260674401,
        0.07485011184743931,
        0.029269801012497515,
        -0.049508821405890836,
        -0.0935605224382121,
        0.08061743106013777,
        0.07737629125018006,
        -0.03779380506394277,
        0.024994141309524626,
        -0.07735889732570406,
        -0.022803618748488505,
        0.052904082258369095,
        -0.0603120545739309,
        0.04989081016968905,
        0.0615886646872319,
        0.04274286791018031,
        0.02432221922066051,
        0.017385060090600035,
        -0.034046241416264805,
        0.08065431188271255,
        -0.06410445539183565,
        -0.07617218956104772,
        0.06732608563098949,
        0.06144764792402624,
        -0.06646734814967473,
        -0.005332366570497821,
        0.07457209704282008,
        -0.05838960318820592,
        0.02515858325996162,
        -0.0937601451097737,
        0.004662016782940426,
        -0.059029426148339836,
        -0.0652046952560845,
        0.06872233427835348,
        -0.002635074114270844,
        -0.05742008159206984,
        -0.07113423855988779,
        -0.03604403037908421,
        -0.055650170336295074,
        0.08462307351771478,
        -0.008351772942869776,
        -0.031248792514756096,
        -0.06144173919606151,
        -0.024147046709616343,
        0.09803152889892647,
        0.08512224445341399,
        0.08584663988772553,
        -0.04000214514871969,
        -0.004020336182113643,
        0.04596086886763834,
        0.0632795334600352,
        0.0047812000520987274,
        -0.018377959766110896,
        -0.032017775592309186,
        -0.04291229582472609,
        0.09764005255409439,
        0.026643353126268338,
        0.08334508796947943,
        -0.031812308926503705,
        0.09292396873157768,
        -0.0993448896959638,
        0.09716952545442525,
        -0.06570751361176777,
        -0.025699108110361468,
        0.020488367012019462,
        -0.009754779872061276,
        0.0850256139477695,
        0.07129233525217207,
        0.05385529339466352,
        0.014543897226006464,
        0.020083780762993636,
        -0.09969485911449537,
        0.006584791176927743,
        0.013719748152572778,
        -0.019623833531159332,
        -0.011777307739455997,
        0.030645413024686374,
        0.04160199783103691,
        0.0682010040972881,
        0.08056355444110963,
        -0.09557358855546974,
        -0.05124591858412795,
        -0.03509685877388176,
        -0.06358907443912049,
        0.05725576870613289,
        -0.03950586227766813,
        0.09308902271253669,
        0.06876161292555946,
        -0.0631082725235372,
        0.07934203210038426,
        0.07535823148176865,
        -0.09836150921002207,
        0.05173224074984634,
        0.010678193689056314,
        -0.04735628911484129,
        0.08425576918855415,
        -0.04125549222852139,
        0.03247004636594325,
        -0.0573645250763843,
        -0.0722783372568336,
        0.01362461628442646,
        0.008242028899147186,
        -0.05760451115073806,
        -0.08879154558492924,
        0.05145514541170232,
        -0.02296444197188008,
        -0.09084578100888077,
        -0.05778487380208097,
        -0.07586370351227581,
        0.044925573869062596,
        0.08941208921820412,
        -0.05050686129689772,
        -0.01487592523425793,
        0.049730654270135344,
        0.008852010476410932,
        0.0374012655817485,
        -0.01768517415417098,
        0.07267079673932578,
        -0.01535398631003621,
        0.037022345497120135,
        -0.0020670323589140906,
        -0.05855364556533321,
        0.07292907838128511,
        0.05102524558803523,
        0.05447764546860723,
        -0.06084748771008015,
        0.03874848815476542,
        -0.08785221207052364,
        -0.003606737937820679,
        0.014255548827973336,
        0.0751502194470254,
        -0.058195329999496885,
        0.05823696247407034,
        0.05604670407716255,
        -0.0899100208898705,
        0.03843046733899119,
        -0.08040758177173034,
        0.02214807120209639,
        0.0802596706280643,
        -0.09662420025388474,
        0.06510521655802314,
        -0.002021678608541925,
        0.07384836450538003,
        -0.04358001140654781,
        0.08131603938557096,
        0.03632426283162059,
        0.0045363852194641174,
        0.009332441213258533,
        -0.06300759943532051,
        -0.0970430867209926,
        -0.004928162204363485,
        -0.012465361464806023,
        -0.07372783900138997,
        0.012712344339045199,
        0.05869304008170479,
        0.04433355438905423,
        -0.016381327858828912,
        0.049723547720767064,
        -0.034221806231319055,
        -0.045884091222258845,
        -0.08513866393095872,
        0.06994677169857659,
        -0.012690502128774837,
        -0.0034205250467933546,
        -0.046794099276643485,
        -0.0035013216395604002,
        -0.017019529428494818,
        0.04271782538228017,
        0.0696607924257864,
        0.055138436093241684,
        0.054239332943666126,
        -0.02431879118234119,
        -0.04997249100018792,
        -0.010670724779297747,
        0.002672079987468415,
        -0.03144509115475648,
        0.010296499010392344,
        0.07182340292339029,
        -9.877596410217089E-5,
        -0.06723508225251806,
        0.08441851843909937,
        0.09595126590311921,
        0.06627253786784532,
        0.0737932310773592,
        0.09993224442085522,
        -0.057354362758243384,
        0.03335859076201344,
        0.05661601765177546,
        -0.05290734569659761,
        0.01414960101662277,
        -0.06111951738927144,
        0.019405645233153624,
        0.021012171710630807,
        -0.012781125928583487,
        -0.021976207615098012,
        0.09244335839097012,
        0.026602991849298215,
        0.038074740173732635,
        0.031814062970151845,
        -0.005025812015193837,
        -0.07091321541830278,
        0.07317598049091184,
        -0.09671326282734603,
        -0.022608932056362226,
        0.04492761692376673,
        -0.0505370148817646,
        -0.02346060579300284,
        0.013742672251148108,
        -0.020617805122060462,
        -0.042894997021449804,
        0.09978949306435567,
        -0.04350275855448463,
        0.04032859950422571,
        -0.005091775145419288,
        0.09943226090465153,
        -0.08546976493536,
        0.08253289906971979,
        0.07896955080464405,
        0.02988542782695387,
        0.035640806474459774,
        0.07061724199823696,
        0.08869900549030849,
        0.08108819882677329,
        -0.06226160928111376,
        -0.012058692969939668,
        -0.02286221742196313,
        -0.02107105056245252,
        0.06141057578021533,
        0.06416458876594737,
        0.0514601214454416,
        -0.060358399127239844,
        -0.0032319527114643004,
        0.04598724481206948,
        -0.03662068335768493,
        -0.031901679330459405,
        -0.024416822797728624,
        -0.006361402708275454,
        -0.05953931013942858,
        -0.07344863146866791,
        0.013406761381518396,
        0.04983314296689351,
        -0.06390867139308302,
        -0.057568487111157425,
        0.036823832354559466,
        -0.0014550261029912248,
        -0.020664598401654397,
        -0.027255374533076027,
        -0.06285413075066501,
        0.007615229524870745,
        0.06550806215389801,
        0.09719642313232099,
        0.05485033416804194,
        -0.06773930855045227,
        0.044032954986345796,
        -0.02644810284626857,
        -0.08222962346128958,
        -0.054203431572977426,
        -0.06776431074659528,
        0.05596353945028307,
        -0.06862983911548601,
        0.05939610277929838,
        -0.08791188843064486,
        0.05070686973743205,
        -0.04915947597202282,
        0.09446716907627864,
        -0.048549691980160126,
        0.063622829184283,
        0.05245322526371918,
        0.07923414905365062,
        -0.0678085554831385,
        -0.020297085092460504,
        -0.034443146034622105,
        0.055370917775739714,
        -0.03536104029033625,
        0.007635817315442522,
        -0.07320720126831824,
        -0.09896124551802901,
        0.021125816645309478,
        0.02076687033399531,
        -0.02544505520442024,
        0.0034407804610988163,
        -0.06902404827474784,
        -0.0691954134604018,
        -0.0855879466531942,
        0.047012188263623245,
        -0.054911696922404545,
        0.041741320199781884,
        -0.04484281698033186,
        0.022623615912999065,
        -0.09964989440144341,
        -0.05116211913740725,
        -0.059656240067610326,
        0.00868255899418588,
        0.09243054833414308,
        0.0711548246644062,
        -0.01838680007153007,
        -0.0732242930779507,
        -0.09992395009318436,
        -0.06400417172188075,
        -0.062185629172919255,
        -0.06749721071618658,
        -0.0051511471964861,
        0.06976146333479913,
        -0.02213959978129605,
        -0.033589569451337314,
        0.01732088175300947,
        -0.00790547272221273,
        0.01546376115333492,
        0.06044222239141647,
        -0.09594482896325687,
        -0.04116923349752462,
        -0.08966425797438873,
        0.07207914663823278,
        0.009277381117890643,
        -0.045848245390933066,
        -0.006868138474246277,
        0.001352165415239609,
        -0.019039619111651973,
        -0.006530515839882178,
        0.09037001209728032,
        -0.0648332846970005,
        0.023115067443611803,
        0.06595500475810911,
        7.434218266939296E-4,
        -0.041113379318707226,
        -0.09559905514656193,
        0.019256274007011437,
        -0.09430409087372027,
        0.07688273892239719,
        0.057740343850545134,
        -0.031166802450748127,
        0.08482217026346003,
        0.09175943983475673,
        -0.04355966098484787,
        4.7066457917588345E-4,
        -0.049398885111179625,
        -0.09377007403780852,
        0.04939696917348177,
        0.026913179401593212,
        0.01716565948853914,
        0.03211912396361288,
        0.091276381382664,
        0.05819747753163346,
        -0.02574234124352022,
        0.017730697496171774,
        -0.08686188933061317,
        0.05014240380827148,
        -0.04978806266268163,
        0.03782260707762955,
        -0.0552141873177598,
        -0.09341197204424133,
        -0.08324122539778081,
        0.02969338157664142,
        -0.07779877198628937,
        -0.07164106404965659,
        0.013629412940898547,
        -0.09561085058559247,
        -0.008262683484112368,
        0.025559267387636947,
        -0.04760543688369299,
        -0.08620080468637306,
        0.05731703100661961,
        -0.06030992686641428,
        -0.003338883136794535,
        0.012415724089216956,
        -0.09229576788770506,
        -0.04178780117880896,
        -0.0903023578373977,
        0.016791271892197646,
        0.007983810779979159,
        -0.05343914439978797,
        -0.0892454453433415,
        -0.0637649928309495,
        0.04270825834331421,
        -0.028749228404629568,
        0.0877900698786051,
        0.025046999443041645,
        -0.042261721852025126,
        -0.05740634639441247,
        0.07700853278964839,
        0.08959736213820593,
        -0.03637466780477064,
        -0.033317499467456435,
        -0.06143718297295695,
        -0.027185087395587268,
        -0.06454568232931834,
        0.06368013958460303,
        0.03296805650230372,
        -0.0658420517926678,
        0.07238497589770929,
        -0.016917900846225603,
        -0.06578102951561107,
        0.04489736047722692,
        -0.035299249159668464,
        0.026506874511158435,
        0.0032986800339147165,
        -0.07344970574057919,
        -0.04300563704508249,
        0.07469931621382711,
        -0.01028801837301871,
        -0.025439735172887543,
        0.09318948566715143,
        0.007815753200424963,
        -0.07112854502790703,
        0.029827511098043435,
        -0.017581672753781086,
        0.006692302634483102,
        0.05961016385188486,
        0.08745113710089589,
        0.03434521312974678,
        0.027680554048612194,
        0.09878979905250707,
        0.06505245845934357,
        0.07834656991130365,
        0.054767684667969246,
        -0.021081260417882317,
        0.09230668748283755,
        0.00302796667214196,
        -0.049919136708116034,
        0.07988950417496285,
        0.028818073725754484,
        -0.06912064475760604,
        0.04750862715571419,
        0.06739063056256897,
        -0.030768806932016918,
        -0.022560275416037917,
        0.0640546177890336,
        0.08824314785013973,
        -0.04752086143018433,
        0.03516288622336125,
        0.03967215361131443,
        0.06685727242472483,
        -0.043673046092404216,
        0.06924636697551936,
        0.05871049319619376,
        -0.0027998716671325113,
        -0.07112330804382423,
        -0.08399436545285857,
        0.054736951858631144,
        0.031110708421287075,
        0.08545802337554592,
        -0.06605375681978917,
        0.055381415810863255,
        0.026493598087067832,
        -0.017663582115780965,
        0.07350690068789498,
        -0.015017105299003713,
        0.03786818817450538,
        -0.032071495642281,
        0.0035165048337975485,
        0.01020043538433861,
        0.006945579913239144,
        -0.09227784181512542,
        0.06072882968546767,
        -0.012616431572558276,
        0.04235055763174719,
        -0.01914336205354568,
        -0.026631418837621837,
        0.05038023270948397,
        -0.034698586276262794,
        0.05432588322439316,
        -0.04955691479709157,
        -0.036406956897720985,
        0.04200564074015095,
        0.0550259537903339,
        0.025643950238510488,
        -0.04252256479206554,
        0.02372490025311777,
        0.08037533192341248,
        0.09798356397679325,
        -0.03769188365081795,
        -0.028092084574835405,
        -0.08500529568901523,
        -0.07911849027839535,
        0.06092310820098215,
        0.058485315020767814,
        -0.04605943397275587,
        -0.042763764498062386,
        -0.007712689230300079,
        3.657007760926173E-4,
        0.07224486534825994,
        -0.0599122201818048,
        0.055100575716729744,
        0.012367573896472,
        -0.07397928588930339,
        -0.04320250347917259,
        -0.015692159683924373,
        -0.05573290605154033,
        -0.0778480730644231,
        -0.09075881911654482,
        -0.09674814045839264,
        0.005336796601831659,
        0.05159213088185796,
        0.09333220115527271,
        0.09034183320887759,
        -0.02630402945613744,
        -0.054443253664033464,
        -0.01173836520916302,
        0.0414939812659203,
        0.037988485423189056,
        0.08439925173850041,
        -0.05083734656739807,
        -0.04176695688940262,
        0.02534921694166048,
        0.0657206885307268,
        -0.043523224295430096,
        -0.053773618241147375,
        -0.0676843376734774,
        0.021269339829324857,
        0.09111983182237801,
        0.07015527505096009,
        -0.005713522949262889,
        0.061445315860421845,
        -0.02338403575239653,
        -0.021789295687289115,
        0.0043240729714886655,
        0.021732442826610535,
        0.057688029717941264,
        0.08313383679125436,
        0.023543717556251315,
        -0.012862086895118474,
        0.06936340411077116,
        0.06660418248078714,
        0.01302685296913994,
        0.07872774325144197,
        -0.008525778288103678,
        -0.040088810030635295,
        0.06114175256857832,
        6.040068839297252E-4,
        -0.019498428512959243,
        0.04622790716083247,
        -0.019650209787529876,
        0.06617762402842756,
        0.024033403674840664,
        -0.07156188381683835,
        -0.09597891311634497,
        0.04934823570095409,
        -0.027323748093721845,
        -0.08864882032415129,
        -0.0735215033320718,
        0.039210616719804636,
        -0.029918874410631416,
        -0.04172838741293279,
        -0.001565764846791523,
        -0.08383526005814164,
        -0.07618562153688709,
        0.09927326563732558,
        0.015178756077386793,
        -0.08718543545334252,
        -0.06187554230193191,
        0.0921607740449227,
        -0.08367314617766093,
        -0.0252016389037151,
        -0.035774017595390034,
        -0.03301626600911137,
        0.05362120449651506,
        0.09470117509772455,
        -0.08545728528421109,
        0.02110191962734402,
        0.0772388714451443,
        0.05645790743049908,
        -0.06557854545931555,
        0.07418265579635017,
        -0.058758284082714246,
        0.09816327844224354,
        0.028149087767815495,
        -0.05885579887481845,
        -0.06474314262169362,
        0.07796270236313355,
        -0.00432460880893952,
        -0.06405805600032385,
        -0.08783135755001446,
        0.010706002800213693,
        0.0522645162548038,
        -0.019773062043774936,
        -0.09945101119308404,
        -0.06769632871693193,
        -0.024631706832831265,
        -0.041710958306364,
        0.0657482112770009,
        -0.0557668895291656,
        -0.04866500152005167,
        -0.06667001680800405,
        -0.0849862943992733,
        -0.0075997320027381965,
        0.0791373065661651,
        -0.08000580308871881,
        -0.07030067528870339,
        0.04256977024749195,
        -0.07087636997413004,
        0.09421828014514827,
        0.051573426366158415,
        0.028834429492587466,
        0.051867337950458,
        0.013842661089120953,
        0.05042899851663385,
        0.07210303137179602,
        0.08550855530564638,
        0.02206192169490173,
        -0.04335546112811855,
        -0.007657185994114135,
        -0.08044627774088611,
        -0.08932705953433469,
        0.05503968333232814,
        0.07132116349632839,
        0.03891819727139764,
        -0.06878703135142401,
        0.005314884731339342,
        -0.0381513831154658,
        0.0940677477123226,
        -0.040537554997216035,
        0.07955975353342676,
        -0.014966760532685641,
        -0.07856514019223462,
        0.042420227557939894,
        0.08876002751596498,
        0.008814190919539541,
        0.07285623244656883,
        0.08674173711124092,
        -0.09207163186402939,
        0.05905009410444148,
        0.003598111007065821,
        0.08376328154134857,
        0.0034295584551174707,
        -0.02130431632293442,
        0.015606443730646707,
        0.008618660692860367,
        0.016265989568335956,
        0.021107971714041773,
        0.05593907910635773,
        -0.02041298821671518,
        0.06153461117732237,
        0.040281015367951145,
        -0.07009236056321738,
        0.018693554270799967,
        -0.03303820080900825,
        -0.07618386590633766,
        0.004276972425658138,
        0.01571784812798098,
        -0.007632006869198099,
        -0.09630763045200662,
        0.04794036317457823,
        0.06514685405236106,
        0.04710924025137178,
        -0.024590429599113686,
        0.0858090549253267,
        0.019243014750944615,
        0.05398798741870481,
        0.057834527639134936,
        0.0262248934614443,
        0.08028029516615984,
        0.09582097931026187,
        -0.06591177779454,
        -0.036974687274070814,
        -0.05886598620458803,
        -0.0752027717833259,
        0.028070209133514712,
        0.05045999174828317,
        -0.02420700245341964,
        -0.08504550850557376,
        0.09172380996329266,
        -0.09752088079547608,
        0.07999558464534659,
        -0.005452143009877397,
        -0.09509625003936167,
        -0.02251677400554819,
        -0.03292638956533821,
        -0.09222044683870617,
        -0.07728437792268042,
        -0.024554947945705785,
        0.03522143387607102,
        -0.07569585636821488,
        0.04445430621160157,
        0.09638414723109798,
        -0.06021008925318205,
        0.04011886670193768,
        -0.07622353247726299,
        0.08749521015460593,
        -0.07216208754061162,
        -0.00510606976135522,
        0.09149985758609375,
        -0.05919846230762671,
        0.022056917521832448,
        0.06849310255828409,
        0.020430080185909083,
        0.09402521493085259,
        0.07731694867532665,
        0.013380077178454464,
        -0.07412669346540779,
        0.0344359915623379,
        -0.024535059950730548,
        0.029801554868579133,
        -0.03399884943751855,
        -0.09123882300405944,
        -0.02736051367694807,
        -0.002916842593758198,
        -0.017008191119325305,
        -0.09819092775096516,
        0.06824870086589754,
        0.037069718168790206,
        0.008879325118066259,
        -0.037721120191997075,
        0.02589064578600106,
        -0.09531328571841446,
        0.0493007078917832,
        -0.07369968531587084,
        -0.05612115755521028,
        0.07579499497501571,
        -0.046161634651689966,
        0.017566397061201333,
        0.04666785605366314,
        -0.06604376801049633,
        0.08341324185603716,
        0.08749330314854528,
        0.04835704966078111,
        -0.054578201538786966,
        -0.006808269154212801,
        -3.385791238217778E-4,
        0.02558326019167889,
        -0.04439681104996203,
        0.06372732709797144,
        0.05986206183005843,
        0.029495994038934187,
        -0.05952269672931448,
        -0.06643416347494036,
        -0.05360541543775588,
        0.0651415812679276,
        -0.09717467605213428,
        -0.08669939413769295,
        0.00482907653012539,
        -0.02853453849020389,
        -0.0841009017551747,
        0.0940722587441577,
        0.037269939298689325,
        -0.053725256224311395,
        -0.013945539964951098,
        0.002765083350371317,
        0.038226099789291285,
        -0.022114227179449802,
        0.0310859628151145,
        0.0016600823592940878,
        -0.09248608529909615,
        0.06881446885398665,
        0.0524430859737097,
        -0.017937458151840405,
        0.005189044437412263,
        0.06674986577642647,
        -0.08279694488544731,
        0.05942969176327301,
        -0.09567600734584698,
        -0.0458158661241409,
        0.059620937453729955,
        -0.05821799890364099,
        0.04451824747813388,
        -0.009544769582140192,
        0.062269620490050394,
        0.013689662956206078,
        -0.007661960630764663,
        -0.051422694775180564,
        0.08325140460194337,
        -0.045109167484509764,
        0.0745282112198338,
        0.04421812664563943,
        0.05858232674528249,
        0.09552762648725685,
        0.06542756149174406,
        0.01499397803339112,
        -0.07207116987682663,
        0.09956846668471486,
        -0.01753243961177524,
        -0.02378318065046086,
        0.006939896182478075,
        -0.037254466800527845,
        0.07163710827912834,
        -0.04783223775004247,
        0.060920319534470024,
        -0.08586128923768824,
        -0.05060783087890111,
        -0.037466728115696186,
        0.022321018954848688,
        0.017714630299712125,
        0.008626608684958475,
        0.02904607382309346,
        0.038323338105692877,
        0.08453474625094418,
        -0.0072368333130808475,
        0.0605572370020457,
        0.03534839225699983,
        -0.07264101164470414,
        0.09627581575668089,
        0.07270933133086206,
        0.0431415770006893,
        0.015415148727619218,
        0.05861476253498299,
        0.0037119597546236213,
        -0.06556033170537512,
        0.020532448468007107,
        0.08416174774454041,
        0.09845283219266084,
        0.004822790231587261,
        -0.014560266455761917,
        0.04519717930432934,
        0.051125000622779235,
        -0.05743749234189913,
        0.08909080975741784,
        0.09941153191266307,
        0.019648309319772662,
        0.01975922049359531,
        0.037860270723695084,
        -0.009146590747239183,
        0.05517882715511568,
        -0.026119270843091524,
        -0.03231569820874732,
        0.09423183934315646,
        0.0264576571184633,
        0.04234939106494405,
        0.006650976869906497,
        -0.0933388487892818,
        -0.039358158423865676,
        -0.036089412197999333,
        -0.08118957555750035,
        -0.005182453827488094,
        0.0729585375632613,
        0.06574772965267203,
        -0.072333026255625,
        -0.007214913312874781,
        -0.0016501613647414703,
        0.019491889392994424,
        -0.0989673963424109,
        -0.066834024291404,
        -0.05197532725653908,
        0.06421306622471909,
        -0.05207206516286699,
        -0.01993620897301782,
        0.08437742619895454,
        0.0796749343368196,
        0.03590875089812731,
        0.0983180275456574,
        -0.08938780779221982,
        0.009644334532059734,
        0.04623802280076494,
        -0.035796337796656946,
        0.00486681000734917,
        0.03618856659398485,
        0.06884798774188386,
        -0.024313614156189486,
        -0.004697894272920503,
        -0.056721045125343754,
        0.02805647812222487,
        -0.056031098170102,
        -0.04803574085627353,
        -0.09420436758699818,
        0.029452768391532307,
        -0.011622245712083699,
        -0.06020530155305796,
        -0.09061306678619126,
        -0.016226559699154913,
        -0.0399167494677842,
        -0.060988838038357245,
        0.09840732423605474,
        -0.021842480146122986,
        -0.0657318553112242,
        0.08912333792457382,
        0.03458690060237288,
        -0.042759072869694915,
        0.008401431010767978,
        -0.021677141657004226,
        0.07677152878174776,
        -0.04018527659660876,
        -0.01529494907191541,
        -0.02273673062972235,
        0.05204644934081995,
        -0.07948048939071854,
        0.06658680243107376,
        -0.031387446457251555,
        -0.04777258823865514,
        -0.04764003063041598,
        0.01435837717052612,
        -0.02875884013186799,
        0.06601480236167744,
        -0.057844146995519825,
        0.0392585221783511,
        0.0961268355853393,
        0.011563995148644885,
        0.017484201465392517,
        0.05411341462462923,
        0.04828470515258226,
        -0.04946655306379459,
        -0.09161047884305204,
        -0.07631613485241179,
        0.08007833799702292,
        0.016200092605757905,
        -0.06283167208173487,
        0.02147273417913667,
        -0.03906206350667649,
        0.08343396061830442,
        -0.043022585654540785,
        0.04694316381873454,
        -0.05541601203427081,
        -0.026615776318486176,
        0.06533368640348017,
        0.027766072397113956,
        -0.06400345272845404,
        0.07934428520510133,
        -0.06675335982895834,
        -0.09370752388537724,
        0.006785353107158519,
        -0.08133550732728756,
        -0.02035736409469935,
        0.06796272302987477,
        -0.061656575046787794,
        -0.027707369022640326,
        -0.06982567702344712,
        -0.04045381960428318,
        -0.01867154551041178,
        -0.08692166253814222,
        -0.06660753377946041,
        0.0034313978464674,
        0.03682503131720198,
        -0.015511174544393826,
        0.0865848894606637,
        0.008592302679421914,
        0.053435358292732466,
        0.07954428582681963,
        -0.010234423699091263,
        -0.07947508134617376,
        0.09268497879337002,
        0.024633157912157623,
        0.005279042410154138,
        -0.01791824876790132,
        0.04561908778639737,
        0.004322965976891722,
        0.001564733769111136,
        0.041599932118218615,
        -0.023995967479878876,
        -0.04265986042305475,
        -0.09864994585407638,
        0.0013828762674723601,
        -0.05985121133941955,
        0.016880015770217784,
        -0.04932219827958967,
        0.09245761287730957,
        0.04039654273005942,
        0.09436217438288748,
        -0.07644670122550103,
        0.0032927342717585587,
        0.09195342093126309,
        -0.03602551240999094,
        -0.06571763003627257,
        -0.09623268202250676,
        -0.0713894077034048,
        0.06265828020914821,
        0.03972428371054707,
        0.025544237718873503,
        -0.054257517574922975,
        -0.09064984350716114,
        0.012770091285040721,
        -0.020887915302924998,
        -0.04337561118400166,
        -0.020959525769395474,
        0.06515250802332513,
        0.01391092464126239,
        -0.01132813264601528,
        0.06393265370655912,
        -0.09320233500140128,
        0.028195977520772804,
        0.09704388393212689,
        -0.04741038351540278,
        0.09275747315846032,
        -0.07165557579317022,
        0.05655951021902576,
        0.08243145747186167,
        0.0609646658304948,
        -0.012766107302887334,
        0.046430215527778956,
        0.016023850681233145,
        0.02589750005444865,
        -0.024430716751054554,
        0.03203983393090238,
        -0.07187713170313104,
        -0.03364674645425388,
        -0.05044022304283512,
        0.1028236890971957,
        -0.002182307658397601,
        -0.03340294953968733,
        0.023390593048695646,
        0.028381451773100277,
        -0.05814414442930396,
        -0.07399377844322447,
        0.04840083797625782,
        0.04796200146440233,
        0.07753306210637055,
        0.045054713245727886,
        0.05775995885536435,
        -0.022619004608147298,
        0.02038708858993539,
        -0.0860746845167528,
        0.06835014785316933,
        -0.08434524827041236,
        0.05325461881688238,
        -0.02493241267842194,
        -0.07921142152626903,
        0.0740835412582867,
        0.039060549153242176,
        -0.07886016220210527,
        -0.06997297443133088,
        0.06231927522254505,
        0.007649277113098635,
        -0.026176594033187943,
        0.00130856617054042,
        -0.023314020574745097,
        -0.08097645827251755,
        0.08149046405798671,
        -0.004203070255720081,
        -0.07502177581801409,
        -0.09804690195694878,
        -0.09595585774377054,
        -0.07201109302232041,
        -0.04904667215365349,
        -0.019796180639867943,
        -0.05792834767506643,
        0.0074565264469190744,
        0.02320757534760858,
        0.024276829273870426,
        0.09105751643366602,
        -0.03583123998609656,
        -1.563284982941374E-6,
        0.07992959456889331,
        0.0860104889471576,
        0.0633098799417944,
        -0.08389884337575178,
        -0.0560566392660474,
        0.015150339369338342,
        -0.08217358073908693,
        -0.07713686824215091,
        0.07174871910995975,
        0.00456123038936052,
        -0.0942176194896324,
        0.09232119469935407,
        0.009383247051130788,
        0.057718176236079846,
        -0.02552891999607184,
        0.012313045267425271,
        -0.01135995318876847,
        0.00733894272802787,
        -0.06618310852520569,
        0.01771316816452443,
        -0.01362824382293689,
        -0.028517280051180934,
        -0.0034486972038967386,
        -0.03236642170424908,
        -0.002253804608327444,
        0.03505860578072866,
        -0.05701727140100376,
        0.08514906536828902,
        -0.09109397687708429,
        -0.07187443013954162,
        0.014951088574981591,
        -0.019633155347264612,
        0.0010976131148387192,
        0.01590952393662843,
        -0.06894142424780993,
        -0.05723025961210804,
        0.024292971779484255,
        -0.05447168220784846,
        0.06160667931577594,
        0.009930016700204543,
        0.05487435349378272,
        -0.03868829654664953,
        -0.07197090634536499,
        0.05109300987740427,
        0.0611570358854109,
        0.08491766388090528,
        0.08943381827933934,
        0.08560551853692905,
        -0.031855099102729025,
        -0.02414868650573537,
        0.02035992572972361,
        -0.005087686194753145,
        -0.0034700905900781694,
        0.037431758827585135,
        -0.01286127727337827,
        0.005385351379828904,
        -0.010860481998065918,
        0.0718081827053926,
        -0.005974721761796517,
        0.030233458761940158,
        0.04388034351880587,
        0.04409517922776467,
        0.03990000245470744,
        -0.049474988353477176,
        -0.04098318957569243,
        0.08673892701105541,
        0.0466509386116154,
        -0.026595328487738337,
        0.08210141038453965,
        0.0572846979507008,
        0.05052628954022139,
        -0.02827393926261725,
        0.022389768234438473,
        -0.012947804824688339,
        0.07559988081451507,
        0.029234478235667556,
        -0.010852790279478117,
        -0.007447911438266585,
        -0.02061366762049716,
        0.040513840945489994,
        -0.04408444798291336,
        -0.013169376922540724,
        0.021129947334516546,
        0.03060836823381969,
        -0.07211367931698494,
        0.047881018870036804,
        -0.08673890016937567,
        -0.001973363542836977,
        0.06846008936686032,
        0.014318570858174366,
        0.022499954895155064,
        -0.08156611254931996,
        0.09334940523194228,
        -0.056749864421921016,
        0.016040065763440352,
        -0.07891411055514073,
        0.05951236251980263,
        -0.042662060065260396,
        -0.0735675898955439,
        0.08777515175226461,
        -0.009223060477202989,
        -0.0399881460055616,
        -0.0658418101323133,
        -0.02332422967516567,
        -0.09133797538599264,
        0.017148107653639385,
        -0.00481861494978458,
        0.008905654994576458,
        -0.0640572151349929,
        -0.08616628239200132,
        -0.08235705036670199,
        0.07702553136913498,
        0.057393527981190434,
        -0.06528578303611723,
        -0.05273916061884638,
        0.0788690561109673,
        -0.030465812819825015,
        0.03500617948434839,
        0.031556171109193766,
        0.08852213587477939,
        0.02315900490571248,
        -0.0635702097179445,
        -0.08196627186451474,
        0.03684874608604238,
        0.028485416953491702,
        0.03017723482706151,
        -0.08641874851421702,
        -0.02985729180346358,
        -0.09672637885847712,
        -0.08540669845941706,
        -0.017875178655263696,
        -0.08085499303488139,
        0.09353113601751585,
        -0.021491118085486975,
        -0.06107648654370028,
        -0.052307394358215714,
        -0.08269566702396253,
        -0.005772447371562924,
        -0.09841003387910707,
        0.016604055101818123,
        -0.0549633918490527,
        0.09949188183372791,
        -0.06811949991868053,
        0.05437804947236576,
        -0.027588646581367688,
        -0.008356951871997916,
        -0.016590357897585152,
        -0.027519138917718195,
        0.03678745860211799,
        0.07162755903702951,
        -0.06081811267386141,
        0.04137475937029089,
        -0.07465941404057087,
        -0.0729648174426824,
        0.0440343341881298,
        0.079469232408018,
        -0.07793127426387443,
        -0.06207183675253221,
        -0.041303160265540546,
        -0.05087592335468048,
        0.002094175705425559,
        0.049178981758291676,
        -0.07931443085015204,
        0.016354059693650898,
        0.08880446063978963,
        -0.0016024536968541926,
        0.059157143876423894,
        0.009878059463341802,
        -0.06074850055246167,
        -0.028338961207103764,
        -0.08513884090938555,
        -0.0626845802587557,
        -0.002500503490553588,
        0.0829854899420522,
        0.06461321244016298,
        -0.07832539891782728,
        0.03657336950181819,
        7.618475401409731E-4,
        -0.09962038458612467,
        0.10367910466912973,
        -0.06577503144709368,
        0.03550535725908005,
        -0.08432564317120637,
        -0.06566376162582964,
        -0.03234771618036587,
        0.010430543193163564,
        -0.018931590632184473,
        -0.05380291913124986,
        0.027692100689948897,
        -0.055809591048258354,
        0.0019303545362530487,
        -0.052286054816750624,
        0.039364852215480924,
        -0.06871471493575255,
        -0.03610828268384721,
        0.09918089915121364,
        -0.01582381870358156,
        -0.0028869456463720203,
        0.06121755758515681,
        0.01409926314671856,
        0.04602555598032909,
        0.08691421986340316,
        -0.025461608741063572,
        -0.00628214526329154,
        0.08749265484612853,
        0.09068838314803701,
        -0.05472494242271149,
        0.049520333505846274,
        -0.08886342771551783,
        -0.0239360606110489,
        -0.05932866192256272,
        0.0370070084861859,
        -0.03260399898040925,
        0.09183565012303997,
        0.07727940282895289,
        0.0849754297377154,
        -0.02664889199911653,
        -0.06418022813284316,
        0.06162341112806062,
        0.07413265759220004,
        0.07258027158147022,
        -0.003935859916302429,
        0.07599590306557226,
        0.08173249377970648,
        -0.013800096015642416,
        0.09709207452739259,
        -0.04775916791444872,
        -0.08004824599534023,
        0.08697082918585691,
        -0.026883877780313585,
        -0.02115669323475441,
        0.08458320544472062,
        0.0034911403421983614,
        -0.03298094004668821,
        -0.096129038675077,
        0.040428640364709015,
        -0.04009208959562128,
        -0.08999749519644672,
        0.010955456235268678,
        -0.03870721267914808,
        -0.07960934457515373,
        0.01395893737017787,
        -0.059920610190994775,
        -0.07098170227555996,
        0.08977008846344386,
        0.07583370727582094,
        -0.007211648424322277,
        0.03124341047638173,
        -0.05196396261846812,
        0.003449215411362637,
        0.10089327782349922,
        -0.01693574358254543,
        0.014114984399838767,
        6.478878538954104E-4,
        0.040144542829340824,
        0.0070408815081759845,
        0.0671304575003331,
        -0.0010241262801319378,
        0.0869035738135377,
        -0.09522306119363001,
        -0.03230605920301975,
        -0.04431717450086526,
        -0.044016167022576554,
        0.0283263754859363,
        0.05291793922722275,
        -0.028965095105165168,
        -0.0010045673036200783,
        -0.06869852683386303,
        0.08955615707249957,
        0.006734551413710777,
        -0.02182987369108449,
        0.027144435517131287,
        0.041479646208495785,
        0.06358037417447762,
        0.06844791664383758,
        -0.003859660641134291,
        -0.06801767330127692,
        -0.07885112801436568,
        -0.010927183124833324,
        -0.04434811783630876,
        0.08018374764501614,
        -0.032886580107939045,
        -0.03691803510601749,
        0.02507522098940912,
        0.05631759129568319,
        -0.02741197517180518,
        0.06951605371407577,
        0.05647056375207588,
        -0.027488328506733217,
        -0.008887380438027009,
        -0.07258561164115732,
        0.03964320565970456,
        0.07227133586922241,
        0.057940314429820235,
        -0.07831953291922512,
        -0.013099102609650635,
        -0.05570703479668029,
        -0.08268972731838516,
        -0.005269998898080769,
        -0.06477666760347686,
        -0.07760270243828858,
        0.09018153832054679,
        -0.08441093943281643,
        0.04655905620124251,
        -0.056200390443649585,
        -0.05000992868941516,
        0.07093812585699488,
        0.03552087017322877,
        0.03515256955561749,
        -0.051313614860316145,
        0.04271706998631836,
        -0.008569628357003261,
        -0.006917046821173917,
        -0.04523913921884168,
        -0.021496618016376513,
        0.03672611491990165,
        -0.0954567711579096,
        0.019587372022332652,
        -0.011907957519202955,
        0.039235825589751964,
        -0.07660792851608922,
        -0.014363399802655776,
        0.026169415913337463,
        0.02748807946168242,
        -0.004130956572041532,
        -0.017689045536269155,
        -0.06331859166047908,
        -0.05078955763247269,
        0.004141163122220185,
        0.038357245072665386,
        -0.05355886874531039,
        -0.00168273974082521,
        -0.04814549811959032,
        -0.07246293368668592,
        0.043891052183303546,
        0.051039540114123504,
        0.0787481913181067,
        0.05338714222746542,
        -0.06675878498095111,
        0.016903673540048552,
        -0.07854943006655186,
        -0.019461897505902652,
        -0.03567955198844396,
        -0.08224074748979512,
        0.04678569138238617,
        0.05520704512131952,
        0.059335625976405154,
        0.0565427819314923,
        0.07069499236291588,
        -0.013295442359094701,
        0.05982362474447637,
        0.084590879845534,
        -0.014300209861356272,
        -0.04500137392922285,
        0.021115950868933767,
        -0.09601053006748372,
        0.002310165881062938,
        -0.027686117424836627,
        0.02598170005488301,
        0.09951149495597039,
        0.062206074812944705,
        -0.009832493360331806,
        -0.06423876646302532,
        0.05283337822839694,
        0.05140560690025198,
        0.012061233767889416,
        -0.07265661940740659,
        -0.010622691587202582,
        0.01841581782512662,
        0.019213152094300898,
        -0.01031323394028108,
        0.08990317471846834,
        0.08024112466085564,
        -0.07064878137472552,
        0.02570095791002197,
        -0.02970476949668381,
        0.08971111944538365,
        -0.04483590645493079,
        -0.007417210904430413,
        0.01608052670882172,
        0.03587354603785636,
        -0.05563456709924557,
        0.016969031239220736,
        -0.06685380888447996,
        0.03451930192302671,
        0.06635124591379063,
        -0.01796869008156457,
        0.0626706185981454,
        -0.005526367290229109,
        0.015734979754681966,
        -0.014019941665836602,
        0.031696932545702744,
        0.033341254022055816,
        -0.08940435484836239,
        0.010767662975658704,
        -0.015517939272517364,
        0.060338468693896335,
        0.07753486971687668,
        -0.06330978089498107,
        0.033690086011084086,
        0.04404059741219507,
        -0.06385328549844185,
        0.09190769361800552,
        0.06913125917138521,
        -0.06068150271460169,
        0.02226176196678495,
        0.035472585119271594,
        0.06663085612822098,
        0.0604330539086628,
        0.022334904804592284,
        0.038277474228166436,
        -0.04925497335681115,
        0.05620203744530869,
        -0.06939597343252667,
        -0.05159782879419766,
        0.08242339723209352,
        -0.03165107340368736,
        0.08615453674105075,
        0.005661492965062603,
        -0.033648877599143964,
        -0.06441142224811575,
        0.0987826656545174,
        -0.09527496558753966,
        0.002585884214872866,
        -0.0562999485603444,
        -0.0694419413499503,
        -0.002999485295518703,
        0.04323808622993153,
        0.015782111012051223,
        0.06424422563942386,
        -0.031457253069951716,
        -0.042674602535714756,
        -0.012917706396731149,
        -0.039757018000328964,
        0.03457043967137757,
        -0.044434476291042135,
        -0.08476430411132214,
        0.08048705972993186,
        0.05074343921048419,
        0.08175393594164104,
        0.039445015119558724,
        0.04071272752275268,
        -0.042826657046911715,
        0.03850614077867076,
        0.02107859357701887,
        -0.05819790184119544,
        0.04321064899497934,
        -0.017473219202544035,
        -0.02664134183615839,
        0.026392681343480662,
        0.04937198909635668,
        0.09820078167786958,
        -0.08074288030752522,
        -0.09129054288874959,
        -0.09265870682059821,
        0.03818450121299116,
        0.0044117260324462865,
        -0.06641735804427662,
        -0.04020096969061209,
        -0.09419231964956837,
        0.03582056685358953,
        -0.06512792794520778,
        -0.0010960539213999698,
        -0.05352020642679918,
        -0.08273160599934742,
        -0.015973038151371854,
        0.015572178001485443,
        -0.08607278336073171,
        -0.09111666634791821,
        0.04626764324835558,
        -0.03873130517674322,
        -0.01802955285046974,
        -0.049081945492087935,
        -0.005116389165979562,
        0.08984659045415905,
        0.08368340078273714,
        -0.03920534725326377,
        -0.026599865731309014,
        -0.03096014471117195,
        0.07715966465095611,
        0.037647949871010666,
        0.04087341271706141,
        0.029535693340564717,
        -0.03925664482243396,
        0.0900470105595825,
        -0.012667928902233741,
        -0.04587726564648225,
        0.09046503231182762,
        -0.05972974491285208,
        -0.03560929230332181,
        -0.09976827195876808,
        -0.011443960724454638,
        0.05245464088037541,
        -0.05968113676226568,
        0.09625576211797868,
        0.07429727995804963,
        0.08213477733863778,
        -0.040643297431964535,
        -0.04464276595787538,
        0.09709143144374757,
        0.051133260853726575,
        -0.03817351172557231,
        -0.08996083650758702,
        0.006530234498643067,
        -0.08554145613587733,
        -0.09540327613934013,
        0.08657877079380508,
        0.05536149561191714,
        0.004812343738049105,
        -0.08928634444225925,
        -0.08950849678542437,
        0.09864308195224941,
        -0.08449645535421467,
        -0.027477338683540284,
        -0.03748593107353056,
        -0.07399590263704198,
        0.014011137143801422,
        -0.06564017232724557,
        0.08916528115493427,
        0.04381626247946033,
        -0.03386612673475624,
        0.08890185409415424,
        -0.08723610317188556,
        0.010211180898884578,
        -0.00539027140922739,
        -0.06447974439690113,
        0.08285288068005098,
        0.018262237210177765,
        0.0962835189665692,
        0.06949360130611107,
        0.06429989357536517,
        -0.07871758524846986,
        0.09834636560177865,
        -0.0023106578145837275,
        -0.0330859098561936,
        0.0990723514991047,
        0.046866016026209434,
        -0.0906653389671853,
        0.08723959908992665,
        0.0750856072395665,
        -0.010227714021087492,
        0.06975351806862515,
        0.055256448123468055,
        0.011861070651475084,
        -0.05834271159512432,
        -0.04954512379240317,
        -0.04296007196015875,
        -0.06429492579084506,
        0.09919534743610411,
        0.060714976069287024,
        -0.06100030047455201,
        -0.028511182777527913,
        0.013682852567808185,
        -0.09619573977558656,
        -0.009859611606028024,
        0.004559264530129559,
        0.021143636238210986,
        -0.054732601037054844,
        0.04585553420159777,
        0.029144705303952023,
        -0.019349481607572452,
        -0.04882878138885348,
        0.06009275092947927,
        -0.008685765964635857,
        0.07786904738131616,
        -0.06899933737540431,
        0.052273773619509925,
        -0.010929663173069828,
        -0.08611849649985996,
        0.0028837630548121523,
        -0.048830233641243795,
        0.05456524737744086,
        -0.08251803746223875,
        -0.011953763851839744,
        -0.06975249188530391,
        0.008206004467278122,
        0.0955439411247383,
        0.037027913135205925,
        0.056600275909825526,
        0.05147995412168098,
        0.06614624502816932,
        0.09182793669700409,
        0.0612244180936585,
        0.042025506375516684,
        0.008177178125755257,
        0.09612499692676005,
        0.07814874836476518,
        -0.016872234867866227,
        0.003871849676615987,
        -0.019972648414305186,
        0.09846130685131323,
        -0.05003805959545907,
        0.05171416093570241,
        -0.033326904273174196,
        0.03292744276324168,
        0.0754071748318958,
        -0.01640222781581871,
        0.07357235951536639,
        -0.08949286861053196,
        -0.07743620858558335,
        0.03199259369249102,
        0.01806857696149723,
        -0.06289197165415539,
        -0.016422745186235682,
        0.06299074217242275,
        0.06549482983078027,
        -0.012272091805371806,
        -0.05026633560893612,
        -0.08444102624352501,
        -0.07477401228814569,
        -0.06818088310263135,
        0.05497321831382795,
        0.06726387884656741,
        -0.07887546409033602,
        -0.05686166899623438,
        0.077422903007558,
        -0.004786990080507291,
        0.05325936741323849,
        -0.01864592623585391,
        0.04801059430359375,
        0.060533952409711406,
        -0.09823710823108567,
        -0.009460626563801837,
        0.08477331754113428,
        0.06087272886158224,
        -0.07411168905200126,
        -0.027057682513450497,
        -0.06818928769173775,
        -0.07875945569396245,
        0.05137095014231281,
        -0.06559569976512301,
        0.046636845235381294,
        0.020096795057765474,
        0.06055772625565117,
        0.03288829012306792,
        0.06666527420895077,
        -0.06762506553272533,
        0.05501490275799943,
        0.04113960501260396,
        0.06184652352474102,
        0.06331641058927337,
        0.08455674611014613,
        0.022849361925591477,
        0.09842524148722591,
        0.06267475009008484,
        0.01282845070638087,
        0.05056205364005166,
        -0.048265265095839366,
        -0.08257498443124117,
        -0.07962590244111585,
        -0.08461199535375212,
        -0.04606330735772005,
        -0.06223913653452251,
        -0.060241119797086545,
        -0.028142844269634718,
        -0.0816218690182082,
        -0.016487515185358837,
        0.05832793710045572,
        -0.08000495617525666,
        -0.018982003085199615,
        -0.09524167249837544,
        0.03116818803480781,
        0.036729752810242156,
        0.03622713206224367,
        0.0013269955157938157,
        -0.005244810698330642,
        -0.06464184928917281,
        -0.0877736318234517,
        0.07163636642009474,
        0.0036661929853570884,
        -0.047415066700485044,
        0.08009000452637773,
        -0.06209339022597187,
        -0.040313279537912465,
        -0.06830213588910126,
        0.0037300925082725755,
        0.031240641438312566,
        0.05620259441923425,
        -0.07448178138777352,
        0.061423123039400646,
        0.04149132549205363,
        -0.08622476555041599,
        -0.08402225492855032,
        -0.07747327241694746,
        0.044242704374721935,
        0.05642150914967403,
        -0.09988309529138499,
        0.08322718845593365,
        0.05847295470714018,
        0.03485963021938265,
        -0.009360602556413336,
        0.03758157149282939,
        0.09985120330893126,
        -0.0032047093975075725,
        -0.01547742348137271,
        -0.021889964533371158,
        0.054747655765337196,
        -0.022963927325566142,
        0.08128902020878717,
        -0.03016852386700094,
        -0.07726634664220496,
        0.04321358127384644,
        -0.03957596351946461,
        0.03680899511541261,
        -0.05984600068800691,
        0.01662021318872596,
        0.06522212017329372,
        0.017010350579458686,
        0.04836978648784378,
        0.0672344772354361,
        -0.063269136674444,
        0.019810999995150742,
        0.03348142058876712,
        0.07575294218575916,
        0.08494930173828442,
        -0.09767911816693443,
        -0.06588784042147053,
        -0.038052797649758635,
        -2.216921414949371E-4,
        -0.01466063785051129,
        0.07704166483236795,
        0.03659283113957971,
        0.04717052682885029,
        0.07666110474394691,
        -0.08041161004632637,
        0.08367953177130859,
        -0.04284608342428215,
        -0.09700176577919753,
        -0.08287487294923246,
        0.04064520827478273,
        -0.07505086300650551,
        0.017784403136001603,
        -0.06730696301658502,
        0.03065827542883199,
        0.0774108550929275,
        -0.08515500755805291,
        -0.013106598672161818,
        0.041126318204359115,
        -0.0722931890090064,
        0.0013886564789189085,
        0.0048211626012422855,
        -0.055618055461415974,
        0.07675279166564888,
        0.019375048231012586,
        0.08871678381100953,
        0.08836096708882775,
        -0.08946367959444625,
        0.08371990258018638,
        0.03747357195379127,
        -0.01642371031938349,
        0.08236995298547502,
        0.06786158883270292,
        -0.07819673610187314,
        -0.10420559756347669,
        0.03318473737000941,
        0.05202734632356411,
        -0.02619440191631669,
        -0.03628776339896867,
        -0.045721677167419594,
        -0.031164143557554543,
        -0.06459321073465123,
        -0.06974591506326393,
        0.0701415769062509,
        -0.09709816589511039,
        -0.0857627428747153,
        0.04143260394768334,
        -0.05256636285620506,
        -0.05285634989072089,
        0.0752068156307674,
        0.08588051287926667,
        0.05746550476148881,
        0.08444163519263159,
        -0.028542549637430067,
        0.0680045339804269,
        0.011207893412614413,
        0.03184156322742301,
        -0.09161180826127417,
        -0.059623830251819526,
        0.018258847281790377,
        0.0618855098248645,
        0.048483315474822715,
        -0.021595780217954108,
        0.009932804365123223,
        0.10612603550429084,
        -0.044658541550559566,
        0.03421967062186871,
        -0.0979497121471759,
        -0.002169018201113359,
        0.06093371108428216,
        0.050239743268706546,
        0.11770129689555163,
        0.08682040163864138,
        0.06608090766674393,
        -0.013601080932299526,
        0.04554393934484219,
        -0.08716094963802845,
        0.050073436519662305,
        -0.09420078476903568,
        0.074560470861618,
        -0.06269862462338588,
        0.09637768471713001,
        0.06232404802601772,
        0.030845560400794586,
        -0.020660547633310985,
        0.03683098331065056,
        -0.03286466435374398,
        -0.024421941114466664,
        0.08043407564543426,
        -0.07902913654567388,
        0.0159845153921258,
        -0.044376535434046877,
        0.05014566842914066,
        -0.04703963589306623,
        -0.0982839290626211,
        -0.014353516988442075,
        0.01968921471356259,
        0.07118840718550791,
        -0.09481798479093122,
        0.031161689894366847,
        -0.05356555238378616,
        0.01798081556001755,
        -0.021612754918408014,
        0.03439859385362068,
        -0.001732471928466886,
        -0.06987609190419529,
        -0.10508195072638388,
        -0.05987987010992446,
        0.04290572190507551,
        -0.0529737710120277,
        3.722274881115691E-4,
        -0.023688550324993028,
        0.0630455413474463,
        -0.10000549650927847,
        -0.01495314099459065,
        0.09756792737155079,
        -0.08509652061539862,
        -0.028960892264912923,
        -0.013054063460871608,
        -0.07499502031760737,
        -0.07119257844862938,
        -0.038029132128029754,
        0.06194425653144555,
        0.06396944252822702,
        -0.06329992772231251,
        -0.08426581519403281,
        0.02248443195192883,
        -0.0728089859844359,
        0.09708203862820139,
        -0.043968601778240864,
        0.08588787876195518,
        -0.04618892222689356,
        0.06576637269870723,
        0.026402005735923762,
        -0.029238372323761766,
        0.07667259909919538,
        0.005971306020221622,
        -0.0848723574645533,
        0.034377374815083114,
        -0.10361020547683555,
        0.07511018918286262,
        -0.03909914502869641,
        0.09341581951855986,
        0.04593311653267566,
        -0.052063768348,
        0.010269716376153558,
        0.0889044568096306,
        0.06115527536621167,
        0.03348533866720144,
        -0.08468378645672986,
        -0.10827847387242749,
        -0.061707801190054354,
        0.0465045866319869,
        0.0015666780736974517,
        0.006112498541834148,
        0.007594304818188652,
        0.006757704372723592,
        0.007306844231875848,
        -0.025373227831380643,
        0.08264594294535338,
        -0.006792046713785064,
        0.058854775444755106,
        -0.05968657682624446,
        0.005963010643788029,
        -0.038571238156512345,
        0.08578903251412566,
        -0.03235967141563618,
        0.1078318188447028,
        -0.017046097823966808,
        -0.081465695331187,
        -0.06233525436134644,
        0.009365856765848316,
        0.09022254982041295,
        -0.06894665499284142,
        0.03822566870356257,
        0.059860336317766084,
        -0.10826406731002337,
        -0.010719830259370944,
        -0.028844747339926428,
        0.054654291618010435,
        0.0638648741779679,
        -0.011433798047726021,
        0.026870854548123605,
        0.056225245932554714,
        3.9917927405597826E-4,
        -0.0796480013598524,
        0.008593519269519807,
        0.05726125467306728,
        -0.1065113720803319,
        -0.004782040974312902,
        0.087883654955641,
        -0.11152020949261558,
        0.1442928188597871,
        -0.04039071114941388,
        0.05629027346195215,
        -0.023186961861752432,
        0.039970837290429544,
        -0.06938768050531437,
        -0.09020134260676436,
        -0.007768332356335556,
        0.009916533199084147,
        -0.03773765024856015,
        -0.013301031738915049,
        -0.09866508523370293,
        0.0633128136954454,
        0.012418343967552075,
        -0.1012234049504028,
        -0.01275867398379045,
        -0.09793733762598351,
        0.048057058276251445,
        -0.04711783618056198,
        0.0988157266090892,
        -0.012900488977175533,
        -0.08028932135156766,
        0.01410351830307842,
        -0.02007218989948591,
        -0.07732426942087557,
        -0.05119356851900187,
        1.1721538550211674E-4,
        -0.0088268670787721,
        0.008834681601940649,
        -0.024956778174019166,
        -0.01188649273222853,
        -0.11563066767119953,
        0.00797144048071797,
        0.004605252659312894,
        0.042507130422115035,
        0.006218751486708123,
        -0.05776653032000568,
        0.013349826772539602,
        -0.0451106742861542,
        0.1306134711284686,
        -0.008099431785474844,
        0.04443690365042908,
        -0.08470585960661638,
        0.018849272881132015,
        -0.0806328699491809,
        -0.08914793538611304,
        -0.04545713361215776,
        0.04395939179439077,
        0.01684911027489102,
        -0.08710833467899774,
        -0.04489078917924159,
        -0.028114068532241646,
        0.038671935957332086,
        0.07541656692958622,
        0.018450403363009352,
        0.04696303883356562,
        0.03396171750052998,
        -0.07705240953428734,
        0.005024557142402936,
        0.06431723803996091,
        -0.01773975786427324,
        0.04696665049208151,
        -0.07575942205856413,
        0.05851266002024197,
        0.03498689093122378,
        0.03292556226189513,
        0.010000757161803493,
        -0.08061080379019056,
        0.07400166645372414,
        -0.06575528699439048,
        0.01943802753483823,
        0.09301088734581948,
        0.01817816237267709,
        0.03389470136610456,
        0.026651912433289942,
        0.06761487992241491,
        0.06373472310957884,
        0.0029755585227592245,
        -0.056958865413709064,
        0.0845556566204572,
        -0.045986740330718305,
        -0.05404674544091284,
        0.015595236483118646,
        0.03531862724874105,
        0.06369163808412337,
        0.018763280714001712,
        -0.11750026019752963,
        0.007279764944533938,
        -0.020982734594797624,
        -0.0019621181500289347,
        -0.04860562374383738,
        -0.050432767541651144,
        -0.014491147764105686,
        0.06687446592978068,
        0.10291614984112818,
        -0.10495676968014213,
        0.03895692738343233,
        0.07462472052181561,
        0.022034823889209316,
        -0.055732186428490614,
        0.05682440867349119,
        0.10345221139232241,
        0.028476089232061765,
        -0.043026724453785935,
        -0.02198711224827864,
        -0.02222121507304694,
        -0.008478386193223929,
        0.09291107311320683,
        0.022665087473028166,
        0.07447295396036896,
        -0.06303758663288998,
        0.07892791086544623,
        0.05230987954648121,
        0.0956783013654365,
        0.03733738894357285,
        0.08150254495810569,
        -0.051440201443263354,
        -0.026926954858006898,
        -0.0010332765746091396,
        0.0281255567708237,
        0.053367101888665516,
        0.08098033143384215,
        -0.05252876834503473,
        -0.1051671390078144,
        -0.0926354465176337,
        -0.01026536387214939,
        -0.0039721165209128505,
        -0.02870851081838665,
        0.13628482836413053,
        -0.05099984031001818,
        -0.01237596112800353,
        -0.07173733828274775,
        0.12018184927346691,
        0.06567457187995515,
        0.05010801158305374,
        -0.011477211598935937,
        -0.042137731584095194,
        0.010384317771157382,
        -0.024656128259135386,
        -0.06626436375970587,
        0.05591961099307568,
        -0.006517438506672253,
        0.08862602329912612,
        -0.031687082655601044,
        -0.038051332718866376,
        -0.07290825975868168,
        0.09942957747128942,
        -0.10678256580141611,
        -0.012223267869125788,
        0.06097380727919838,
        -0.08720980077872431,
        -0.10266404543631764,
        0.02187183363952289,
        0.028388114941778193,
        -0.0395499815947974,
        -0.05439167967739324,
        -0.044415842836860515,
        -0.0684434893139529,
        -0.08378991267252499,
        -0.0730870465616201,
        -0.05100451548625269,
        -0.06975200036250094,
        0.003884092791621925,
        0.0684041996454271,
        0.07281014924786194,
        -0.009535787521140914,
        0.00894583619540393,
        0.06791744401303372,
        -0.0614913528509927,
        -0.058855399509129526,
        -0.035699769676290766,
        0.0048872598619326985,
        0.06226379243442162,
        0.07497823384128247,
        0.033091956222488096,
        0.03133360624628565,
        -0.11719576549877311,
        0.07677796033290354,
        -0.011282992268760807,
        0.02097816711935232,
        -0.023518100883913186,
        0.0234370464168107,
        0.012054157419472388,
        0.06390245504163639,
        0.059006140328090005,
        0.09368449753981287,
        0.036264539091530074,
        -0.03862206074181034,
        -0.09102370554997417,
        0.06507833677945565,
        -0.006704193608751116,
        0.006435351297450551,
        -0.05157221512152992,
        -0.010944352509130164,
        0.022333395717649984,
        0.015437826145555547,
        -0.03861267827704604,
        -0.06502735643126949,
        0.034497705970957096,
        0.027290108800487472,
        -0.06999957975620545,
        0.10885897006418313,
        0.08529698396092547,
        0.013114281450471311,
        0.0018084237268068877,
        0.07545261711838502,
        -0.0788273477375699,
        0.050401761095108306,
        -0.019150549262578642,
        -0.04624380778498892,
        0.10277515228895102,
        -0.06500476193319647,
        0.022772473491124646,
        -0.10178372139642798,
        -0.07343300648319852,
        -0.08227803728385104,
        -0.10764846410077765,
        0.0694266564001488,
        0.06210284897590395,
        -0.0747395676914406,
        0.0365656653068033,
        -0.0560125101539969,
        -0.1082073707895865,
        0.07589584436730391,
        0.0337290590635259,
        -0.020362631786827595,
        0.026569751006712057,
        -0.024450340847412783,
        0.003600485182523295,
        -0.013881658291396077,
        0.01928385137319367,
        0.0326689081453948,
        -0.08351129389068733,
        0.009278306296518806,
        -0.08709296066899427,
        0.10060899001387785,
        0.04308367847191929,
        0.08103799675967188,
        -0.08876172796448341,
        -0.05922749674238762,
        -0.11002109406287817,
        -0.07276791308660539,
        -0.05480868331738782,
        -0.05082721194127189,
        0.058246982053364434,
        0.09313348358130503,
        -0.05841674580704555,
        -0.01690989609959298,
        -0.007750556350041224,
        0.10619153432309056,
        0.05198303899965759,
        -0.06347483536359431,
        0.07260383634197025,
        0.06741379785550304,
        0.035484836828965347,
        0.06520925590023728,
        0.11838174436490193,
        0.007472115022260991,
        -0.038809657245985354,
        -0.08865701637052867,
        0.07799147790468065,
        0.026187146833003515,
        0.026567345408477893,
        0.1344375057585386,
        -0.07113837369299125,
        0.08837017157033576,
        -0.03459321778598313,
        -0.003647513291211929,
        -0.004666107609408281,
        -0.06270114277379024,
        -0.09553391944021707,
        0.02287762476194912,
        0.04227507983892266,
        -0.05019753841768731,
        -0.046584555103953505,
        0.009925890743873856,
        0.0960047977696574,
        -0.03937063388847625,
        -0.028643338270749122,
        0.06538777714228602,
        0.0579329214079505,
        0.08087267895736176,
        0.00792040361078139,
        -0.03073308182556285,
        0.02094329831657209,
        -0.07210303915345712,
        0.05916466834687468,
        -0.10667097664705893,
        0.005976408455645835,
        0.05513146402723806,
        -0.03398118720812146,
        -0.05706245727799758,
        0.02615004586564402,
        -0.08990593618785332,
        0.038417100401984254,
        -0.003107844512489303,
        -0.05327094436704114,
        -0.04388325199796704,
        -0.016859488271930744,
        -0.02889357563758882,
        0.052154537034744285,
        -0.04804076283074621,
        -0.06473313549980073,
        0.012453431762466369,
        -0.08824409212237362,
        -0.014936208430405329,
        -0.06673433998460346,
        -0.03679491151706614,
        0.08024020956403338,
        0.0724334507352019,
        -0.06905915246286076,
        -0.09133069116834454,
        -0.06357973468610296,
        -0.0794725212769005,
        -0.05440860355257131,
        -0.025096685974566248,
        0.01881856577736986,
        0.07347882913426224,
        0.027421235295986467,
        0.04034117147669059,
        -0.059965688105775745,
        0.09686313780224706,
        0.05602398918438617,
        0.007113403967618872,
        0.08768800276082217,
        0.005616382189269017,
        0.00500093743765766,
        -0.06943457424884225,
        -0.046593874932390575,
        -0.09280492207290426,
        -0.06929510997062115,
        0.07638145233609939,
        -0.0055369037921738215,
        -0.06035360445802921,
        0.02689688058500059,
        -0.04758224112567312,
        -0.021221762783011,
        -0.057043088837503204,
        -0.027182064954242812,
        0.024480465935720563,
        0.05061118586881428,
        -0.041585732150444255,
        0.0696637183979202,
        -0.05635680719700293,
        -0.0789369765879764,
        0.09416646787926285,
        0.05392370943179218,
        -0.06526564719592545,
        0.03667884340209725,
        0.07985434252110372,
        0.04783760360255581,
        -0.06046447951317237,
        -0.05126628972304988,
        0.03114537264512054,
        0.02664969940252129,
        -0.015591436958684392,
        -0.09542551824304583,
        -0.0022619796263394286,
        0.06085555182194442,
        0.0560342149414281,
        -0.04118743780979173,
        0.08394849301047443,
        0.03159163839309141,
        -0.03208082712940928,
        0.0638915461991427,
        0.006752959704356564,
        0.06715682332153267,
        0.07085695910010187,
        0.0885250185142286,
        0.044133144778347365,
        -0.019892995773725622,
        -0.07904407222397326,
        -0.08034420477849069,
        0.04442349986500217,
        -0.0316487729294413,
        0.016664214986724348,
        0.013182740613011926,
        0.00179948127214528,
        -0.018181483469711674,
        0.04598324176878332,
        0.05744435920979388,
        -0.097185234618385,
        0.0168971300497207,
        0.038049711304061644,
        0.09799373679630474,
        0.05542432746318487,
        0.03349878746260796,
        0.052736834932922486,
        -0.03385240264634639,
        0.10390866170519249,
        -0.049119680946493785,
        -0.02637149671744736,
        0.0522460244272209,
        0.06096576410398322,
        0.07724763355270554,
        0.09670370920238852,
        -0.04718335413501272,
        -0.032571871543911154,
        -0.0440447744844988,
        0.06679348060974957,
        -0.026352999210758284,
        0.03087605471647693,
        0.0789968992146442,
        0.09557550172896874,
        -0.047456118930156964,
        -0.09083453233772422,
        -0.0011153332288250711,
        -0.08331115143849739,
        -0.04575547392101497,
        0.012258258081340782,
        -0.07106468995909147,
        -0.07459146924465396,
        0.08635609977117215,
        -0.07673872777087727,
        -0.015790000100638163,
        -0.0790790234348937,
        0.07723895322807842,
        -0.08036703655049744,
        0.018399310832051624,
        -0.07924968018076742,
        -0.041113994428205874,
        -0.08423218052669675,
        -0.09131199428891662,
        -0.09304016493319811,
        0.057846445704677174,
        -0.0938874395990361,
        -0.06313498000319728,
        -0.04942486957690611,
        0.0379374725467132,
        -0.008667805080217,
        -0.00806525765322634,
        0.04928699985851531,
        0.04527679183023453,
        0.03296643478512268,
        0.04510322242689829,
        -0.058707598912124806,
        -0.05518637354424847,
        -0.079647437580942,
        0.036830732769501995,
        -0.06218119475857462,
        -0.06476981700410464,
        -0.07950160880694124,
        0.025687168467399907,
        0.060281304614270476,
        0.010146067342557602,
        0.02541325755089585,
        -0.03701874892403888,
        0.06464694563147608,
        0.026569340962899285,
        0.011600480229478904,
        -0.02235765705594292,
        0.08890106982396981,
        -0.05982946675523546,
        0.08285992633974809,
        -0.017408635717707205,
        0.06908072150062003,
        0.07183892167653044,
        0.08024472275491598,
        -0.05315475410510804,
        -0.06483944896485189,
        0.08111307466713827,
        -0.0880386254295118,
        -0.08314287158247531,
        -0.07985307453139422,
        0.039460513407303166,
        0.0811979490367542,
        0.01610228014861112,
        0.09405623988577563,
        0.020014207508521606,
        -0.028689780466175804,
        0.0036775633850298084,
        0.0690238199860777,
        -0.04974372544307009,
        0.08549104980594521,
        -0.0693098766938882,
        -0.08739000044845535,
        -0.0897276709471506,
        -0.06800644932630384,
        -0.002531318297207291,
        0.05344041997308671,
        0.0015824201159527485,
        0.09617387437646205,
        0.08513875679038485,
        -0.033362260434611504,
        -0.039812386165773345,
        0.04706485999820911,
        0.011860841017861307,
        0.08607240181052875,
        0.0423538350503207,
        -0.011113006151798735,
        -0.052961576277162206,
        -0.09371967232333574,
        -0.027212381147951728,
        -0.013151508060220807,
        0.006060601628453718,
        0.008965784993383713,
        -0.08775897192585694,
        0.07178165544746382,
        0.043651728524474964,
        -0.0226720892366246,
        0.07521594458625439,
        0.05960787203592696,
        0.06565844086548503,
        0.046019754036871585,
        0.008320735378338884,
        0.009319084930964477,
        0.08711222897611273,
        0.0753689933895701,
        0.025965042707901398,
        -0.01289127015627431,
        0.07866346533384824,
        0.035559768434514666,
        0.09246133561834921,
        -0.09551951752099086,
        0.0639906486994479,
        0.03979543261024637,
        -0.06176540110847098,
        0.05460862761340171,
        0.057546465414634124,
        0.07503227908539054,
        0.0027244378846959377,
        -0.016081147387487227,
        -0.03498997049928124,
        -0.05530532175560963,
        -0.09230340198421967,
        -0.0951960241385752,
        0.008072499222223195,
        -0.04014771607381656,
        -0.017936221372419653,
        -0.019415964088760534,
        0.0806910841591118,
        -0.006339575330940719,
        0.08294839734074355,
        0.09526584289823717,
        0.0957042774017452,
        0.048434917505681185,
        -0.012397224151740605,
        -0.041647897560553385,
        0.03870892456038921,
        0.0755530137859482,
        -0.033064952431193076,
        -0.011104235217067576,
        -0.08964239996416751,
        0.03544243985765927,
        -0.006228092179168018,
        -0.026787930924868076,
        0.009651855133626439,
        0.0882457189923748,
        -0.013175616674789224,
        -0.001617416942125231,
        0.07983212353006143,
        -0.03619702337095899,
        -0.046020031598496214,
        0.01545154535864523,
        -0.047712334027076336,
        -0.013892443591893122,
        0.026103415541076744,
        0.04399198131922302,
        -0.0641936104552065,
        0.06785447590216176,
        -0.07554219269999185,
        -0.07265463018637824,
        0.030661287482747938,
        -0.03262774084604955,
        0.040984845522711685,
        -0.024081336958159463,
        -0.025816376056295838,
        0.0481515998216975,
        -0.057979264345307265,
        0.041914634373406874,
        -0.012456704496624699,
        0.02981827019722904,
        -0.02372258182523787,
        0.07301108110220181,
        -0.07387035223789208,
        -0.08471926568062936,
        0.022047959666169636,
        -0.06622464559225699,
        0.05752803749665264,
        0.046757570533608954,
        -0.009666365289823965,
        -0.09343917562581913,
        0.06749261943029425,
        0.07221108669382717,
        -0.012634595208748834,
        -0.06670593073734819,
        -0.038536624378550176,
        -0.09276755113642826,
        -0.09728045824127148,
        -0.01995842252529718,
        -0.09205492391677673,
        0.065083876438775,
        0.015658886531443286,
        0.09016860120819983,
        0.048764413419490366,
        0.03553713815987614,
        -0.02691119616598878,
        -0.10028343825739029,
        -0.05750780233526165,
        0.010416129811210607,
        0.062483261418785394,
        -0.06172557799356828,
        0.0047282126352610745,
        -0.04904961477925243,
        0.04236366980910571,
        0.044230476196145375,
        -0.0502691021752902,
        -0.015606511974547379,
        -0.011584443356261376,
        0.05144528665693812,
        -0.08628185977784175,
        -0.04644510566777235,
        0.02555972768832827,
        -0.09856326632009928,
        0.017090739475488944,
        -0.0760067373479133,
        0.08823020623749085,
        0.03921600513667982,
        -0.007243796701056859,
        0.04295392037422211,
        0.07995699456567494,
        0.04441429728101715,
        0.039376471035688435,
        -0.04422731713898684,
        0.024166819364097796,
        0.06938857248003653,
        0.08004709972541287,
        -0.007079410887308108,
        -0.020096546549916244,
        -0.04067073683705836,
        0.003719408408448408,
        -0.06208274165830495,
        0.05796648538691044,
        0.07288422129319798,
        0.08179941343539325,
        0.09600660461219002,
        0.0630239917661577,
        -0.0387839700011235,
        -0.07978235284274982,
        0.06591127186187633,
        -0.08960454569444036,
        0.01639124441444449,
        0.01862899645206844,
        0.058653956828211354,
        0.036590840730124745,
        -0.018161331760634027,
        -0.0459593704273161,
        -0.08092910865338605,
        -0.05887888546276014,
        0.08810468223954912,
        0.07952916112193709,
        -0.019245254656595275,
        0.06244426962919974,
        -0.0716664708689086,
        -0.020256268556220126,
        -0.09483231646930398,
        -0.0355916947433833,
        -0.09809789411266381,
        0.0628735297067355,
        0.08034416587486994,
        -0.06258685733004642,
        -0.07265543850771501,
        -0.01979320988791503,
        -0.026103619303699373,
        0.05975131790902802,
        0.04217381143173844,
        0.059764885324017525,
        -0.01804494360436372,
        0.056208425426634956,
        -0.03221567528698134,
        0.06042108868725279,
        0.0021588079360661504,
        -0.011367528184674087,
        -0.02005847704099894,
        -0.027494822793288378,
        0.08951851515330847,
        -0.026736474629811283,
        0.07374296727207225,
        0.018515604271513865,
        0.09156176408490345,
        0.021669575647009626,
        -0.05884116197524618,
        -0.009176994586350757,
        -0.020614386566962184,
        -0.04909031082367139,
        -0.04810167245314414,
        -0.09107959288935936,
        -0.03365116738893132,
        0.06890949997221699,
        -0.07408154554142009,
        -0.019863333170615713,
        0.03724387019568563,
        0.04532415735310373,
        -0.04789889563719553,
        0.022620220767953673,
        -0.05260497621714731,
        -0.10410654560186476,
        0.09419478570634439,
        -0.03403460443298653,
        0.030181267678647556,
        0.02307665332708175,
        -0.017370194568448898,
        0.05486778597632618,
        0.012849554378537575,
        0.026089067757620727,
        0.04286515373511362,
        0.005187413300729375,
        -0.09532274661425123,
        -0.06603167457553624,
        -0.06487883276614853,
        -0.0011234368801254497,
        0.035760508513355875,
        -0.05959051279913651,
        0.06291789920547998,
        0.07083496691530476,
        0.055381983053936955,
        -0.07353078094273639,
        -0.04160170230356496,
        -0.029174632704360184,
        -0.1179079454348832,
        0.06442225760005979,
        0.09368311877074864,
        -0.0523116542793337,
        -0.02303229238097508,
        0.028759111478653922,
        0.0695669041107102,
        -0.05535478054487621,
        -0.024839398464451826,
        0.03726845563739896,
        0.055049933659658545,
        0.03688725287948697,
        -0.11162101131137389,
        0.06827455140834852,
        0.016860900079723306,
        -0.012415256205587933,
        -0.0816086966673645,
        0.08914638255124127,
        -9.622456716708676E-4,
        -0.09294273041360927,
        0.022282156808744655,
        0.03717751879601395,
        0.07705952397411908,
        -0.08891471323315778,
        0.14830289367426766,
        0.015769439986524574,
        0.08076935964612464,
        0.0011391048862586042,
        -0.09281798857511306,
        -0.01253086811392323,
        0.08548360476054266,
        -0.016259228165739718,
        -0.07986821877779689,
        0.03659425661258268,
        -0.061583692677835936,
        -0.03279158796842783,
        -0.05894626273593818,
        -0.004320109007663683,
        -0.030629910789724143,
        0.056976863340745594,
        -0.09690729177847386,
        0.03465140811444598,
        -0.09558249665131678,
        -0.022060788579186773,
        -0.03295025995990926,
        -0.046864394566603476,
        -0.026304449227498326,
        -0.03523619955401091,
        -0.013777666779839503,
        0.012996059080106568,
        -0.07743500432782227,
        -0.0025281451095309337,
        -0.014551503344465321,
        0.05587750494986281,
        -0.011592588185277492,
        -0.002986867564370523,
        0.08821613270567347,
        0.07783811121105694,
        -0.014482771840150411,
        -0.025852494675280467,
        -0.10473203476296797,
        -0.04829417763974425,
        -0.0400844827332966,
        -0.044671635093124586,
        -0.0464122722017561,
        -0.0034837525956084893,
        -0.013269654650043438,
        -0.08993549429858391,
        0.09918372921474745,
        0.11615717597508969,
        0.045651649479649385,
        -0.04057106036791199,
        0.012671635147938554,
        -0.07685579754077207,
        0.00940402867002392,
        0.07209771538257172,
        0.04170272486633926,
        0.09251491036872841,
        0.07389994422038895,
        -0.008999478626408835,
        -0.13873297211902152,
        0.0023408652847750006,
        0.01338422117700351,
        -0.07485023622590332,
        -0.07309838252694088,
        -0.057122288653656296,
        -0.04313001861455114,
        0.02412827537214441,
        0.10820263732301606,
        -0.011928210949119647,
        -0.029447307924977247,
        -0.022794540164835824,
        -0.12142382817623208,
        -0.09666358101576507,
        -0.04295595591526039,
        0.05713626871152805,
        -0.027692838961759392,
        -0.11344993606540908,
        0.022245639447105076,
        0.005562858469795862,
        -0.0491033999424159,
        -0.0019320586703344656,
        0.021459534039662005,
        -0.07171571055635255,
        -0.027741805442436707,
        0.05417269240498485,
        -0.027829599523292094,
        -0.05619356203082459,
        -0.06899829611384481,
        0.06242098466229125,
        -0.07841452627886447,
        -0.0755603179387147,
        -0.06119805938124138,
        0.04978889549132129,
        0.06945578724800003,
        -0.016138999075634635,
        -0.10161945738971183,
        0.060319995063907283,
        6.389638429758135E-4,
        0.014147848642996463,
        0.1090406732743902,
        0.11861103672222638,
        -0.0473117661745345,
        -0.03338676553324799,
        -0.10153910753809707,
        0.03870554452843191,
        -0.09074336591316225,
        -0.04980928447161984,
        -0.08991034977711292,
        -0.044854703933148436,
        0.0036331777635796748,
        0.06215219073019151,
        0.059878415913358976,
        0.06588706963062602,
        -0.10544363640632562,
        -0.024780750052050625,
        0.03123017291946589,
        0.07024573464347293,
        -0.027295237153743313,
        -0.07639232824976928,
        -0.013336621595606933,
        0.0928391067840901,
        -0.12042781077591723,
        0.09546940916028568,
        -0.10995416663572996,
        -0.005222103543785758,
        0.08215938598726373,
        -0.034748885833849864,
        -0.024273203576886507,
        -0.04415116300163347,
        0.0985786117042812,
        0.02405990814998708,
        0.10402085009443071,
        0.02664563200756856,
        -0.07825917196951328,
        0.113628234073153,
        -0.06351679596334792,
        3.537300431324106E-4,
        -0.11658960679786064,
        -0.012732270778181747,
        -0.1398846146346191,
        0.04586749479697124,
        0.030241118300669736,
        -0.10673770851349004,
        0.04735103827191843,
        -0.11227088211726811,
        -0.06771242209602164,
        -0.046529534954556105,
        -0.13387237012050818,
        0.019629835820942264,
        -0.014673238268511244,
        -0.05512701408795,
        0.01585332804525996,
        0.0165598130817726,
        0.06192121969102206,
        0.04383070783363499,
        -0.021909629078949944,
        0.027096313615151697,
        0.09162993546598672,
        0.027899121589599327,
        -0.12761031138506793,
        0.03223022237181843,
        0.0071647728953558145,
        0.017156566578152184,
        0.053922184247561386,
        0.041020865756867045,
        0.07885402596940412,
        0.029335759419587763,
        0.0011511702706666267,
        -0.08415035758497347,
        0.02744326787666445,
        -0.04654559241545596,
        -0.011194955229199782,
        -0.04855814089557917,
        -0.05621394988193803,
        -0.08709899796118903,
        0.06790938356194146,
        -0.09248798261855944,
        0.007487912408728745,
        -0.025587872457894636,
        -0.15046656159715827,
        0.07025423879905138,
        -0.019960350116462997,
        -0.07220307595360805,
        -0.04855381438817598,
        0.04705648963900907,
        0.03466654229793349,
        -0.019879071933713008,
        -0.16192657441379474,
        0.02658497485060331,
        -0.02410542850646077,
        -0.12166114682205453,
        0.0381422737948265,
        0.07779681022161967,
        0.10491558097317456,
        0.039606970316558646,
        -0.015905600194885787,
        -0.08933045697494933,
        0.03829569327778605,
        0.08345678724996407,
        -0.14195467798758024,
        0.03601163121775142,
        0.045149538532787144,
        -0.055288236147579835,
        0.006632210440850864,
        -0.060281391690287046,
        0.014174198864747294,
        0.04652495319420652,
        0.06591336969489998,
        -0.054007248820067015,
        7.640203382535385E-4,
        -0.12347780228157136,
        -0.06765567564777315,
        0.04468629762714953,
        -0.0748432379290415,
        -0.14857295858995884,
        -0.0920232450723219,
        0.0907269695237821,
        -0.10977062805119599,
        0.11638043263384,
        -0.16833592295235242,
        0.07072411366128657,
        0.03530164279852673,
        0.007186738642038898,
        -0.05750203295377697,
        0.08748542097848375,
        0.08974204147810891,
        0.015461105524558589,
        0.04036624763921903,
        -0.03373096423420069,
        -0.013854264912699463,
        0.05165637231286764,
        -0.01609036789486987,
        -0.009202440966762452,
        -0.059889040856348344,
        -0.08341613404392675,
        -0.029520980078445145,
        -0.11615415283122961,
        -0.010161337002946656,
        0.0031821335100908387,
        5.210072973114671E-4,
        0.003365632229332635,
        -0.03579098172452574,
        -0.047151872803954865,
        -0.1585988405177654,
        0.08731445648796739,
        0.034643825481192464,
        -0.07639817890784907,
        -0.0021038842761911918,
        0.10743720359868615,
        0.07754307056243014,
        -0.023001290755731752,
        -0.13247364603666198,
        -0.002023353058866131,
        0.032527783516539205,
        -0.08612600974771406,
        -0.03138703490478601,
        0.04879179456631372,
        0.09993025536820893,
        -0.0023457835511771895,
        0.030585306489680948,
        -0.08395925525057027,
        0.015608673422685812,
        0.041927035365551264,
        0.06250555201775455,
        -0.1038576669958238,
        0.046006552818646435,
        0.028103103334897822,
        -0.009850271432582108,
        0.05942956624011191,
        -0.032399754830683206,
        0.02900880865245534,
        -0.02510212953894894,
        -0.051938444007432936,
        -0.06123049920788125,
        -0.13711970027071055,
        0.01911810302921061,
        0.15948571240531587,
        -0.09268651101426177,
        -0.11292717298371625,
        -0.05376818546643152,
        -0.013189899878904152,
        0.07334890173190804,
        0.019168527851858193,
        -0.1444711059253575,
        0.12684338307837995,
        0.08710428479621013,
        0.03377014559884802,
        -0.027956247820252775,
        -0.008664727069469377,
        0.02737707265544324,
        -0.031550283102243205,
        -0.014409542003794289,
        0.0028326405879243372,
        -0.04618542357717543,
        0.06727939122634924,
        0.07700553172163331,
        -0.02995531030665228,
        -0.02872254198035363,
        -0.02503816533840243,
        0.05999883743823725,
        -0.04543053971562252,
        -0.02035692088212655,
        0.08021603308979362,
        0.04740408607588727,
        -0.032477869757171283,
        0.0021380537902132494,
        -0.011180527258480708,
        0.005026583088416697,
        0.01535329226863294,
        -0.063843232309219,
        -0.0281425421997877,
        -0.08225139665665479,
        -0.010259871109780189,
        0.08160664496615648,
        -0.07867204486571326,
        -0.053657462900600694,
        0.14696987722783839,
        -0.014936582761073902,
        -0.04593161991907153,
        0.02681374773139175,
        -0.04192210314231683,
        0.028065710698919027,
        -0.08964171244761208,
        0.05278167703851343,
        -0.0807753062648123,
        0.08985423462429792,
        0.08345231530405522,
        0.10836249800222784,
        0.05106174611241707,
        0.09161052014195062,
